<?xml version="1.0"?>
<opencv_storage>
<cascade>
  <stageType>BOOST</stageType>
  <featureType>HAAR</featureType>
  <height>50</height>
  <width>50</width>
  <stageParams>
    <boostType>GAB</boostType>
    <minHitRate>9.9500000476837158e-01</minHitRate>
    <maxFalseAlarm>5.0000000000000000e-01</maxFalseAlarm>
    <weightTrimRate>9.4999999999999996e-01</weightTrimRate>
    <maxDepth>1</maxDepth>
    <maxWeakCount>100</maxWeakCount></stageParams>
  <featureParams>
    <maxCatCount>0</maxCatCount>
    <featSize>1</featSize>
    <mode>BASIC</mode></featureParams>
  <stageNum>15</stageNum>
  <stages>
    <!-- stage 0 -->
    <_>
      <maxWeakCount>1</maxWeakCount>
      <stageThreshold>7.8947371244430542e-01</stageThreshold>
      <weakClassifiers>
        <_>
          <internalNodes>
            0 -1 10 -6.6079124808311462e-02</internalNodes>
          <leafValues>
            7.8947371244430542e-01 -1.</leafValues></_></weakClassifiers></_>
    <!-- stage 1 -->
    <_>
      <maxWeakCount>2</maxWeakCount>
      <stageThreshold>3.3591002225875854e-02</stageThreshold>
      <weakClassifiers>
        <_>
          <internalNodes>
            0 -1 14 -3.5911737941205502e-03</internalNodes>
          <leafValues>
            -8.5714286565780640e-01 7.8378379344940186e-01</leafValues></_>
        <_>
          <internalNodes>
            0 -1 11 -4.4014807790517807e-03</internalNodes>
          <leafValues>
            8.9073383808135986e-01 -6.6103440523147583e-01</leafValues></_></weakClassifiers></_>
    <!-- stage 2 -->
    <_>
      <maxWeakCount>2</maxWeakCount>
      <stageThreshold>5.0812679529190063e-01</stageThreshold>
      <weakClassifiers>
        <_>
          <internalNodes>
            0 -1 6 -1.7390027642250061e-01</internalNodes>
          <leafValues>
            1. -4.1666665673255920e-01</leafValues></_>
        <_>
          <internalNodes>
            0 -1 8 -4.3491469114087522e-05</internalNodes>
          <leafValues>
            -4.8283034563064575e-01 9.2479342222213745e-01</leafValues></_></weakClassifiers></_>
    <!-- stage 3 -->
    <_>
      <maxWeakCount>1</maxWeakCount>
      <stageThreshold>7.4358975887298584e-01</stageThreshold>
      <weakClassifiers>
        <_>
          <internalNodes>
            0 -1 4 8.1523824483156204e-03</internalNodes>
          <leafValues>
            7.4358975887298584e-01 -1.</leafValues></_></weakClassifiers></_>
    <!-- stage 4 -->
    <_>
      <maxWeakCount>2</maxWeakCount>
      <stageThreshold>2.1194675564765930e-01</stageThreshold>
      <weakClassifiers>
        <_>
          <internalNodes>
            0 -1 22 5.2733654156327248e-03</internalNodes>
          <leafValues>
            9.3939393758773804e-01 -7.7777779102325439e-01</leafValues></_>
        <_>
          <internalNodes>
            0 -1 16 -1.5722746029496193e-03</internalNodes>
          <leafValues>
            -7.2744721174240112e-01 1.</leafValues></_></weakClassifiers></_>
    <!-- stage 5 -->
    <_>
      <maxWeakCount>2</maxWeakCount>
      <stageThreshold>-8.9990489184856415e-02</stageThreshold>
      <weakClassifiers>
        <_>
          <internalNodes>
            0 -1 2 -1.0726042091846466e-01</internalNodes>
          <leafValues>
            8.3333331346511841e-01 -8.6666667461395264e-01</leafValues></_>
        <_>
          <internalNodes>
            0 -1 19 1.8818341195583344e-02</internalNodes>
          <leafValues>
            7.7667617797851562e-01 -1.</leafValues></_></weakClassifiers></_>
    <!-- stage 6 -->
    <_>
      <maxWeakCount>2</maxWeakCount>
      <stageThreshold>1.6766326734796166e-03</stageThreshold>
      <weakClassifiers>
        <_>
          <internalNodes>
            0 -1 3 -1.2538170814514160e-01</internalNodes>
          <leafValues>
            1. -8.8888889551162720e-01</leafValues></_>
        <_>
          <internalNodes>
            0 -1 1 -1.2326467782258987e-01</internalNodes>
          <leafValues>
            8.9056551456451416e-01 -8.8740503787994385e-01</leafValues></_></weakClassifiers></_>
    <!-- stage 7 -->
    <_>
      <maxWeakCount>1</maxWeakCount>
      <stageThreshold>9.4285714626312256e-01</stageThreshold>
      <weakClassifiers>
        <_>
          <internalNodes>
            0 -1 12 -4.0784694254398346e-02</internalNodes>
          <leafValues>
            -1. 9.4285714626312256e-01</leafValues></_></weakClassifiers></_>
    <!-- stage 8 -->
    <_>
      <maxWeakCount>2</maxWeakCount>
      <stageThreshold>3.1463587284088135e-01</stageThreshold>
      <weakClassifiers>
        <_>
          <internalNodes>
            0 -1 9 5.9300614520907402e-04</internalNodes>
          <leafValues>
            1. -5.4545456171035767e-01</leafValues></_>
        <_>
          <internalNodes>
            0 -1 21 -7.1100291097536683e-04</internalNodes>
          <leafValues>
            -6.8536412715911865e-01 1.</leafValues></_></weakClassifiers></_>
    <!-- stage 9 -->
    <_>
      <maxWeakCount>1</maxWeakCount>
      <stageThreshold>1.</stageThreshold>
      <weakClassifiers>
        <_>
          <internalNodes>
            0 -1 13 1.4900737442076206e-03</internalNodes>
          <leafValues>
            1. -1.</leafValues></_></weakClassifiers></_>
    <!-- stage 10 -->
    <_>
      <maxWeakCount>1</maxWeakCount>
      <stageThreshold>7.8947371244430542e-01</stageThreshold>
      <weakClassifiers>
        <_>
          <internalNodes>
            0 -1 15 8.6536400020122528e-02</internalNodes>
          <leafValues>
            7.8947371244430542e-01 -1.</leafValues></_></weakClassifiers></_>
    <!-- stage 11 -->
    <_>
      <maxWeakCount>1</maxWeakCount>
      <stageThreshold>8.8888889551162720e-01</stageThreshold>
      <weakClassifiers>
        <_>
          <internalNodes>
            0 -1 20 -4.7564478591084480e-03</internalNodes>
          <leafValues>
            -1. 8.8888889551162720e-01</leafValues></_></weakClassifiers></_>
    <!-- stage 12 -->
    <_>
      <maxWeakCount>2</maxWeakCount>
      <stageThreshold>2.6363458484411240e-02</stageThreshold>
      <weakClassifiers>
        <_>
          <internalNodes>
            0 -1 0 -3.4522958099842072e-02</internalNodes>
          <leafValues>
            -8.8235294818878174e-01 9.4117647409439087e-01</leafValues></_>
        <_>
          <internalNodes>
            0 -1 7 1.2593162059783936e-01</internalNodes>
          <leafValues>
            9.4596314430236816e-01 -9.1481298208236694e-01</leafValues></_></weakClassifiers></_>
    <!-- stage 13 -->
    <_>
      <maxWeakCount>2</maxWeakCount>
      <stageThreshold>1.6950775682926178e-01</stageThreshold>
      <weakClassifiers>
        <_>
          <internalNodes>
            0 -1 17 -4.1167694143950939e-03</internalNodes>
          <leafValues>
            -6.9999998807907104e-01 1.</leafValues></_>
        <_>
          <internalNodes>
            0 -1 5 -1.1876175180077553e-02</internalNodes>
          <leafValues>
            -8.3049225807189941e-01 9.4227880239486694e-01</leafValues></_></weakClassifiers></_>
    <!-- stage 14 -->
    <_>
      <maxWeakCount>1</maxWeakCount>
      <stageThreshold>8.3783781528472900e-01</stageThreshold>
      <weakClassifiers>
        <_>
          <internalNodes>
            0 -1 18 -9.1112283989787102e-03</internalNodes>
          <leafValues>
            -1. 8.3783781528472900e-01</leafValues></_></weakClassifiers></_></stages>
  <features>
    <_>
      <rects>
        <_>
          0 8 23 15 -1.</_>
        <_>
          0 13 23 5 3.</_></rects>
      <tilted>0</tilted></_>
    <_>
      <rects>
        <_>
          0 11 38 34 -1.</_>
        <_>
          19 11 19 34 2.</_></rects>
      <tilted>0</tilted></_>
    <_>
      <rects>
        <_>
          0 12 46 26 -1.</_>
        <_>
          23 12 23 26 2.</_></rects>
      <tilted>0</tilted></_>
    <_>
      <rects>
        <_>
          0 15 40 29 -1.</_>
        <_>
          20 15 20 29 2.</_></rects>
      <tilted>0</tilted></_>
    <_>
      <rects>
        <_>
          0 22 10 10 -1.</_>
        <_>
          0 22 5 5 2.</_>
        <_>
          5 27 5 5 2.</_></rects>
      <tilted>0</tilted></_>
    <_>
      <rects>
        <_>
          1 0 26 8 -1.</_>
        <_>
          1 0 13 4 2.</_>
        <_>
          14 4 13 4 2.</_></rects>
      <tilted>0</tilted></_>
    <_>
      <rects>
        <_>
          1 11 32 22 -1.</_>
        <_>
          17 11 16 22 2.</_></rects>
      <tilted>0</tilted></_>
    <_>
      <rects>
        <_>
          1 11 49 39 -1.</_>
        <_>
          1 24 49 13 3.</_></rects>
      <tilted>0</tilted></_>
    <_>
      <rects>
        <_>
          3 24 8 12 -1.</_>
        <_>
          7 24 4 12 2.</_></rects>
      <tilted>0</tilted></_>
    <_>
      <rects>
        <_>
          4 49 14 1 -1.</_>
        <_>
          11 49 7 1 2.</_></rects>
      <tilted>0</tilted></_>
    <_>
      <rects>
        <_>
          5 3 32 33 -1.</_>
        <_>
          21 3 16 33 2.</_></rects>
      <tilted>0</tilted></_>
    <_>
      <rects>
        <_>
          6 24 33 1 -1.</_>
        <_>
          17 24 11 1 3.</_></rects>
      <tilted>0</tilted></_>
    <_>
      <rects>
        <_>
          12 26 28 24 -1.</_>
        <_>
          12 38 28 12 2.</_></rects>
      <tilted>0</tilted></_>
    <_>
      <rects>
        <_>
          14 0 2 30 -1.</_>
        <_>
          14 0 1 15 2.</_>
        <_>
          15 15 1 15 2.</_></rects>
      <tilted>0</tilted></_>
    <_>
      <rects>
        <_>
          20 5 12 5 -1.</_>
        <_>
          26 5 6 5 2.</_></rects>
      <tilted>0</tilted></_>
    <_>
      <rects>
        <_>
          24 6 26 25 -1.</_>
        <_>
          37 6 13 25 2.</_></rects>
      <tilted>0</tilted></_>
    <_>
      <rects>
        <_>
          25 27 16 4 -1.</_>
        <_>
          25 27 8 2 2.</_>
        <_>
          33 29 8 2 2.</_></rects>
      <tilted>0</tilted></_>
    <_>
      <rects>
        <_>
          27 8 14 12 -1.</_>
        <_>
          27 8 7 6 2.</_>
        <_>
          34 14 7 6 2.</_></rects>
      <tilted>0</tilted></_>
    <_>
      <rects>
        <_>
          30 1 10 20 -1.</_>
        <_>
          30 1 5 10 2.</_>
        <_>
          35 11 5 10 2.</_></rects>
      <tilted>0</tilted></_>
    <_>
      <rects>
        <_>
          33 2 12 39 -1.</_>
        <_>
          37 2 4 39 3.</_></rects>
      <tilted>0</tilted></_>
    <_>
      <rects>
        <_>
          33 12 10 14 -1.</_>
        <_>
          38 12 5 14 2.</_></rects>
      <tilted>0</tilted></_>
    <_>
      <rects>
        <_>
          35 22 6 24 -1.</_>
        <_>
          38 22 3 24 2.</_></rects>
      <tilted>0</tilted></_>
    <_>
      <rects>
        <_>
          44 9 6 22 -1.</_>
        <_>
          44 9 3 11 2.</_>
        <_>
          47 20 3 11 2.</_></rects>
      <tilted>0</tilted></_></features></cascade>
</opencv_storage>
